{"levels":[{"inputs":[0,0,0,0.3147192780262428,0.6291287457624322],"outputs":[1,1,0,1,0,0],"biases":[-0.03402800398952731,0.03292408795135192,0.27785516247964437,-0.10320730463273134,0.021046959586872194,-0.11073722234100583],"weights":[[-0.044647788760374146,-0.019414049392275645,-0.11471426998996671,0.03286859715747115,-0.06987269490809077,-0.038426505901555844],[0.13228309689541934,-0.31419625746587065,0.25823693849968044,0.019812320316856924,-0.29146200316645954,-0.07613541382751471],[-0.10658750475231109,-0.058631666156701776,0.05084511241042134,-0.016601311162145853,0.0964062940259766,-0.09228697383295728],[-0.01150806891106455,-0.02083567807087669,-0.062059828696126446,-0.2801324012469825,0.05968082507625566,-0.14322981847774618],[0.21020946574768204,0.28341621242648296,0.022974018370713698,-0.0036264006683273536,-0.134601314106127,-0.13666765154552535]]},{"inputs":[1,1,0,1,0,0],"outputs":[1,0,0,0],"biases":[-0.09337288191971604,-0.07793726373203108,-0.05563303219687012,0.19054305159560184],"weights":[[0.029451761538179647,-0.061010630215674,-0.1701843258149955,-0.012534996116682143],[0.21694880496855865,0.03366295709412857,-0.14745644613541353,0.019651502200324064],[-0.0649465479935474,-0.1638097881630902,0.2077864449641637,-0.006543803229269278],[0.15039072739867268,-0.1886559926430329,0.22982875374606837,0.07744502832597451],[-0.21023555962032675,0.0925624199469817,-0.041331382453883986,-0.032322976627412375],[-0.14823547400086218,-0.06019472812343684,-0.005857035842543018,-0.09711699137745088]]}]}